427 10
the/a 0.074914 0.060293 0.032786 -0.034106 -0.048597 -0.009719 0.007659 0.016519 -0.053848 -0.017173 
,/y 0.022311 0.043474 0.034654 -0.040413 -0.032518 0.035931 -0.011006 -0.020589 -0.007613 0.000421 
of/i 0.087534 -0.001260 -0.054485 -0.005019 -0.028107 0.003279 -0.036678 0.050002 -0.052436 0.022944 
./y 0.041241 -0.020168 -0.049683 -0.049665 -0.012784 0.038590 0.037416 0.028207 -0.046397 -0.002247 
be/v 0.043917 0.030830 0.003096 -0.005154 -0.029682 -0.051465 0.005524 0.027244 -0.034230 0.014715 
and/c -0.002389 0.036879 -0.034972 0.011049 -0.020001 0.015183 -0.005094 0.009966 0.006625 0.006512 
in/i -0.004477 0.037945 0.037937 0.028422 0.004891 0.008121 0.051181 0.037169 -0.002378 -0.004929 
to/t 0.040785 -0.003935 -0.038213 -0.022653 0.026122 0.006247 -0.022136 0.006206 0.018438 0.039026 
that/c -0.016595 -0.028128 -0.014715 0.044296 0.007005 0.022777 0.043220 0.009751 -0.004819 0.000420 
to/i 0.028143 -0.014536 0.003059 -0.033663 -0.000338 -0.029314 -0.024687 0.008953 0.014781 -0.029723 
have/v 0.015361 0.031251 0.014684 -0.035766 -0.028391 0.008900 0.032664 0.012867 -0.056831 -0.022149 
a/a 0.026252 -0.027419 0.017988 -0.038804 0.005298 0.006326 0.022597 -0.042201 -0.014600 0.012561 
he/p -0.013579 0.017534 0.003958 -0.040056 -0.046695 -0.023337 0.016501 -0.048817 -0.000404 -0.009722 
"/" 0.008719 0.037238 -0.006932 0.003942 -0.051105 0.023838 -0.006944 0.012599 -0.050465 0.029393 
for/i 0.053846 0.028778 0.030837 -0.047096 -0.008396 -0.037289 0.001461 -0.045203 0.022981 -0.033808 
with/i 0.053370 -0.022197 0.006532 -0.044564 -0.040541 0.022599 0.043677 -0.024931 0.034803 0.048710 
his/a 0.020182 -0.003182 0.041428 -0.036858 0.039616 0.031466 0.030954 -0.008734 0.011267 0.000543 
they/p 0.030555 -0.010261 -0.027387 0.024782 -0.044721 -0.035173 -0.014034 0.034348 0.040325 -0.019716 
this/d -0.025399 0.000336 0.027094 0.046102 0.010739 0.033525 -0.029032 -0.008762 0.029717 0.044941 
some/d 0.032526 -0.011321 -0.015752 -0.030718 0.034851 -0.027410 0.046892 0.047508 0.035264 0.031395 
it/p -0.040301 -0.004595 -0.012366 0.026052 0.030304 0.042320 -0.037548 0.015759 -0.012444 0.032991 
you/p -0.016279 0.010007 -0.042608 -0.038036 0.046287 0.020906 0.043266 0.017343 -0.023090 0.028173 
on/i -0.025660 -0.027637 0.028140 0.003668 0.037981 0.000933 -0.048055 0.043441 -0.011596 -0.003391 
i/p 0.035398 0.010584 -0.011666 0.029058 0.036123 -0.008165 -0.034007 -0.030532 0.007000 0.039432 
not/x -0.032635 -0.048654 0.023249 -0.010126 -0.025225 0.003113 0.017820 -0.020149 0.033063 -0.013972 
as/c -0.000468 -0.006551 0.041384 0.007885 -0.038930 -0.018992 -0.050461 -0.042373 -0.044105 0.007350 
by/i -0.023335 -0.001971 0.031216 -0.008470 -0.045132 -0.029056 -0.022863 -0.029734 0.039107 0.026451 
an/a -0.034463 -0.014732 0.032680 0.038587 0.016434 0.018038 0.030409 0.037294 -0.045676 0.036779 
?/y 0.051703 0.024228 0.020406 -0.020242 -0.046434 -0.029616 0.039173 0.029937 -0.043000 0.040894 
state/n -0.027170 -0.023964 0.013005 -0.047253 -0.038592 -0.024128 0.006990 -0.000776 0.042734 -0.006709 
do/v 0.003755 0.014652 -0.000493 -0.036197 -0.029805 -0.033479 -0.038708 -0.003959 -0.042402 -0.005797 
house/n 0.049031 0.015674 0.009469 0.019411 -0.028080 0.015547 -0.035324 -0.014303 -0.017587 -0.021509 
day/n 0.025691 0.051913 -0.002023 -0.018957 -0.009678 -0.032745 0.024281 0.023306 0.005126 0.045765 
;/y -0.012482 0.025789 0.007006 0.021573 0.013984 0.007453 -0.029694 -0.014312 -0.014141 -0.030609 
its/a 0.023696 0.037558 0.014546 0.029677 0.019705 0.009838 0.047670 -0.042410 0.000132 0.023216 
'/g 0.008044 0.025659 -0.045891 0.029179 0.017807 -0.031971 -0.017122 -0.001879 0.028508 0.009174 
n't/x 0.009819 -0.011795 0.023501 -0.014230 -0.042519 -0.032538 0.004785 0.044196 -0.038749 0.034650 
but/c 0.051777 0.019369 0.011278 0.016550 -0.018447 -0.033834 0.040516 0.037179 -0.040307 -0.032378 
their/a -0.012557 -0.043547 -0.037860 -0.037384 0.001114 0.023698 0.000775 -0.045720 0.007957 0.001900 
statement/n 0.044477 0.018406 -0.036269 -0.016445 0.013509 0.040490 -0.000505 0.000732 0.005448 -0.021166 
department/n 0.019424 0.044237 -0.032993 0.039513 0.037663 -0.016780 -0.036021 -0.005518 0.033673 -0.012155 
american/j 0.037111 0.017906 0.025645 -0.018776 0.032214 -0.020434 -0.022889 0.015969 0.015002 0.034790 
mexico/n 0.005504 0.025794 0.029637 -0.003920 -0.023178 -0.004404 -0.037875 0.006144 -0.046618 0.048878 
him/p 0.045765 0.006393 0.022462 -0.047498 0.044217 0.007369 0.031708 -0.006095 -0.012666 0.029097 
man/n -0.013244 -0.004632 -0.033287 0.039988 0.034972 -0.047019 0.015415 -0.022016 0.021773 0.014201 
(/y -0.008110 -0.010210 0.014744 0.005432 0.028121 0.002375 0.011085 0.008485 0.038063 -0.033761 
)/y 0.035332 0.024983 -0.020091 -0.039092 -0.041783 -0.020795 0.027543 0.015155 -0.021339 0.027644 
time/n 0.051872 0.040834 -0.037037 -0.048026 0.025864 0.032003 0.000440 0.017190 -0.017006 -0.035257 
president/n -0.030038 0.026249 0.036010 -0.019840 0.034547 0.018525 0.042915 -0.006287 0.028930 -0.002666 
write/v 0.050589 -0.032905 -0.041803 -0.042687 0.020353 -0.040046 0.055714 -0.044141 -0.038902 0.022595 
committee/n 0.021818 -0.034086 -0.006020 -0.022529 0.015961 -0.045501 -0.005409 0.012810 -0.022141 0.047204 
year/n -0.037659 -0.042243 -0.024483 -0.041879 0.020374 0.006671 -0.041410 -0.042549 -0.023394 -0.016508 
census/n -0.008300 0.033766 -0.035652 -0.030010 0.015285 0.032472 0.041328 0.024347 -0.013344 0.000499 
when/c 0.020690 -0.027338 -0.021197 0.037728 0.013610 -0.000102 -0.001011 0.000537 0.030761 -0.009139 
put/v 0.051727 0.026150 0.019011 0.033834 0.003597 0.047724 -0.023607 -0.024437 0.029679 -0.026890 
bill/n -0.005768 0.030013 0.046862 0.010257 0.043269 -0.017761 0.015771 0.048059 -0.024561 0.035026 
look/v -0.031431 0.018208 -0.029065 -0.003578 0.023646 0.032244 0.002040 0.005984 0.037790 0.046627 
after/i -0.045209 -0.046775 0.001237 -0.015522 0.018750 -0.033127 -0.002256 -0.008519 0.034484 0.048908 
from/i -0.001875 -0.047591 0.027248 0.005088 0.016659 0.049420 -0.010779 0.033871 -0.010337 0.023737 
one/m -0.036901 -0.015561 0.042346 0.028187 0.032680 0.050637 -0.015307 -0.014210 -0.050002 0.039797 
take/v -0.006292 -0.010123 -0.040613 -0.015856 0.023506 -0.002341 -0.048525 0.045471 0.016871 -0.006214 
government/n 0.060953 0.024614 -0.024022 0.017932 0.035227 -0.032429 -0.003635 -0.018740 -0.004810 -0.031227 
each/d 0.044401 0.039072 0.005653 0.004068 -0.040107 0.014035 0.003944 0.017199 -0.007051 -0.033778 
should/v 0.036169 -0.031619 0.014125 0.023277 -0.021375 0.006237 0.030306 0.010772 -0.006985 -0.011093 
same/d -0.019188 -0.013072 0.036360 -0.006680 0.005824 0.021370 0.015463 0.013087 0.041771 -0.010659 
happen/v 0.016517 0.025298 -0.029406 -0.015532 0.031045 -0.027067 0.000211 0.024621 0.043071 0.039415 
massachusetts/n -0.008433 0.040606 0.015887 0.004239 -0.051489 0.024619 -0.040424 -0.041299 -0.026167 0.049267 
chairman/n 0.044369 0.026264 0.008874 0.030125 0.011912 0.039884 -0.029925 0.008193 -0.050327 -0.026798 
:/y 0.003826 -0.017213 0.032675 -0.043906 -0.032012 -0.012251 -0.010006 0.008758 -0.037782 -0.042590 
come/v 0.021796 0.039995 0.028734 0.016358 0.002237 -0.004134 0.016747 -0.037049 0.034792 0.001576 
me/p 0.010380 -0.027353 0.025745 -0.029875 -0.012032 0.025027 0.016575 -0.047595 0.023029 0.008095 
propose/v -0.038045 -0.028211 -0.048748 -0.055060 -0.042638 0.016064 0.011504 0.050927 -0.052212 -0.004461 
as/i -0.002291 0.003155 0.008551 -0.046647 -0.011083 0.024397 0.039455 0.024910 0.006348 -0.014421 
at/i 0.046517 0.034886 0.011087 0.021965 0.022808 -0.034583 0.030025 0.006071 0.037803 0.006735 
would/v 0.046670 0.020244 0.025763 -0.046110 -0.043826 -0.025684 -0.010737 -0.007882 -0.005804 -0.025372 
reapportion/n 0.033713 0.047780 0.025159 0.043619 -0.024487 0.026892 0.005808 0.053261 -0.020401 -0.049771 
seat/n -0.005978 -0.020868 -0.023832 -0.023958 -0.000742 0.019323 -0.009511 -0.034815 0.024786 0.022456 
s.-a/n 0.026748 -0.008541 -0.042715 -0.033931 -0.034084 0.002218 -0.032743 -0.044159 0.025668 -0.047630 
basis/n 0.024065 0.028991 0.036268 -0.048145 -0.043896 0.008759 -0.045986 0.017974 0.021211 -0.034817 
if/c -0.011447 0.039004 -0.033817 0.012558 -0.009551 -0.016823 -0.013890 0.004095 0.016206 -0.029985 
fenn/n 0.021885 0.007147 -0.033008 -0.023282 0.039288 0.012464 -0.033451 -0.040239 0.041023 0.025223 
out/i -0.028932 0.026471 -0.015452 -0.014957 0.032550 0.007301 -0.003137 -0.023918 -0.037857 -0.036508 
like/i -0.004273 0.044841 -0.005567 0.023173 -0.036608 0.039524 -0.007610 0.009056 0.046215 0.002825 
fisher/n 0.046355 -0.016913 -0.011248 0.001251 0.009064 -0.008514 -0.035326 0.028352 -0.014741 -0.028131 
old/j 0.039685 0.047137 0.013958 -0.027047 -0.003281 -0.041910 0.045318 0.026672 0.044642 0.004872 
other/j -0.014412 0.006446 -0.040588 0.014304 0.024789 0.037224 0.011210 0.033516 0.037348 0.027408 
support/n -0.021300 0.047793 -0.018885 -0.030819 0.010324 0.023280 0.023188 0.025143 0.022645 -0.040843 
cattleman/n 0.043354 0.003528 0.038003 0.020898 -0.023199 0.035777 -0.003045 -0.019431 0.039681 0.003891 
ferril/n -0.012706 0.007291 0.011078 -0.051241 -0.005049 -0.046679 -0.041057 -0.025250 0.022919 0.027263 
business/n 0.027607 0.050034 -0.041946 0.024229 -0.024260 0.022478 -0.040447 0.009973 -0.038051 0.033259 
ai/f 0.048640 0.032901 0.029970 0.003122 -0.037592 0.035611 0.031579 0.014419 0.044445 -0.006792 
head/n 0.019370 0.037837 0.022556 -0.014036 -0.024715 -0.002660 -0.040673 -0.033368 -0.000968 -0.029453 
so/r 0.016948 0.009928 -0.010485 -0.002678 -0.030636 0.035445 0.010647 0.036293 0.017948 -0.048701 
or/c 0.039695 0.018060 -0.014584 -0.042801 -0.025938 -0.000592 -0.016186 -0.018212 -0.011894 0.010371 
mile/n -0.000035 0.055019 -0.011103 -0.037708 0.004986 -0.046622 0.041106 0.025298 0.045705 0.008206 
carry/v 0.052655 0.051080 -0.025357 0.036206 0.022537 0.004940 -0.017133 0.001560 0.003327 -0.010022 
ton/n 0.000016 -0.011492 0.007382 -0.006162 -0.044265 0.021028 0.035969 -0.045360 -0.015214 0.000424 
text/n 0.034187 0.038128 -0.044608 0.017168 0.006051 0.025872 0.052394 0.034503 -0.027314 0.007843 
's/g 0.022983 0.011898 0.038872 0.025655 -0.006045 -0.006734 -0.002180 -0.047673 0.019513 0.014086 
here/r 0.049731 0.019397 -0.008378 -0.000086 -0.023893 -0.042430 -0.024566 0.013109 -0.000362 0.008362 
follow/v 0.006517 0.032714 0.037190 -0.011528 -0.040277 -0.026610 0.012835 0.044628 -0.039267 -0.041788 
publish/v -0.022947 0.030161 0.015827 0.045256 0.033797 -0.033246 -0.028462 -0.045023 -0.004691 -0.029125 
which/d 0.051487 0.033813 -0.004955 0.001008 -0.013149 0.024664 0.032205 0.010276 0.004644 -0.046523 
say/j 0.052014 -0.016190 -0.003987 -0.008803 0.000302 0.046396 0.003142 0.018824 0.017182 -0.005306 
property/n -0.024801 0.017421 -0.024547 0.018218 0.005913 -0.015235 0.044869 0.010282 -0.016586 0.027685 
citizen/n 0.047065 0.003972 -0.029844 0.006109 -0.006172 0.048864 -0.026276 -0.048501 -0.050699 -0.022415 
no/a 0.018027 -0.031093 -0.025887 -0.010452 0.030237 0.020848 -0.041301 0.017662 -0.043652 -0.004324 
mexican/j -0.000666 0.033480 0.006132 -0.050839 -0.039414 0.050528 -0.012460 0.021695 -0.032114 -0.001055 
comply/v 0.019391 0.041616 -0.021418 0.023588 0.011337 0.000468 -0.010734 -0.042422 0.026594 -0.020118 
see/v -0.017225 0.040122 -0.038812 -0.008611 0.040026 -0.024478 -0.034036 -0.015085 0.029815 0.012206 
back/r 0.030616 0.018568 0.025130 0.013476 0.003499 -0.018065 0.025935 -0.025774 0.036033 0.018165 
clerk/n -0.013457 -0.002264 0.000432 -0.050220 0.001729 -0.040159 0.010351 -0.034799 0.019475 -0.044963 
angry/j -0.000809 0.014186 -0.002208 0.028946 0.024530 0.034005 0.008848 0.009941 0.047108 0.025835 
upon/i -0.023134 0.012642 -0.031143 -0.012035 0.017275 -0.028548 -0.034094 0.033694 0.032982 -0.027819 
ruler/n -0.026580 0.018061 0.034696 0.005746 -0.033494 0.001558 0.018152 0.042835 -0.037266 -0.020287 
europe/n -0.019380 0.005715 -0.037376 -0.045040 -0.025569 0.039959 0.005538 -0.015506 0.045321 -0.018818 
refuse/v 0.007406 -0.033652 -0.020426 -0.047594 -0.006115 -0.042148 0.028463 0.016332 0.022740 0.049226 
accept/v -0.004819 0.010779 -0.031923 0.026474 0.030328 -0.027115 -0.008499 0.016643 0.039530 -0.011103 
professed/j -0.031072 -0.045205 -0.050338 0.028922 0.004405 0.025759 -0.048572 0.014255 0.039303 0.034700 
desire/n 0.046203 0.025008 0.039318 -0.047955 0.038804 -0.037747 0.035456 0.040993 -0.003299 0.026643 
peace/n -0.036087 0.005152 -0.021583 0.003358 -0.039223 0.043548 0.002931 -0.025202 -0.043161 -0.027333 
pronounce/v -0.033321 0.036375 0.030574 -0.019979 0.016386 0.010736 0.034334 -0.020449 0.032685 -0.021581 
outlaw/n 0.000975 0.002113 0.015023 -0.007661 -0.031043 0.007360 0.045971 -0.044528 -0.046972 0.046571 
four/m 0.030308 -0.035014 0.018198 -0.048522 -0.019786 0.029385 -0.037601 -0.039136 0.025545 -0.026558 
great/j 0.049767 -0.000147 -0.032802 -0.009010 0.043850 -0.040923 -0.033761 0.009427 -0.024299 0.039443 
power/n 0.049406 0.004606 -0.046921 0.004728 0.024577 0.009804 0.035452 0.031541 -0.050540 0.005835 
pledge/v 0.028044 -0.038656 0.043338 0.041818 -0.044936 -0.013249 -0.013021 0.009814 -0.015064 0.014645 
themselves/p -0.009804 0.033067 0.027367 0.036746 -0.046471 0.028246 -0.046957 0.011455 0.016080 -0.010588 
keep/v 0.027388 -0.010151 -0.039411 -0.025948 -0.015770 -0.015539 0.037830 0.014129 -0.024367 -0.036787 
150,000/m -0.011517 0.014894 0.035529 0.021138 0.005072 0.027420 0.036236 0.009594 -0.038149 -0.021360 
field/n -0.016724 -0.002739 -0.029635 -0.011364 -0.018437 0.034992 -0.020846 -0.028588 -0.031257 0.046413 
until/c -0.026115 -0.035234 0.049212 0.014578 -0.001771 0.006305 -0.001649 0.006584 -0.008088 -0.027203 
finally/r 0.008843 -0.008363 0.003409 0.020540 -0.008318 0.044022 -0.047459 0.011966 0.011876 -0.000560 
overpower/v -0.013602 -0.017757 0.013393 0.040361 0.017746 0.010638 -0.038019 0.032780 0.022905 -0.050479 
decline/v -0.031230 -0.006014 -0.002774 -0.043888 -0.050419 0.001385 0.051571 -0.026244 -0.037200 0.017742 
fall/n 0.027206 -0.045459 0.031963 -0.008680 -0.049969 -0.022680 0.047906 -0.029957 -0.049899 -0.024094 
empire/n -0.031104 0.025181 0.037985 -0.000494 -0.031883 0.005751 -0.014851 0.031738 0.030339 -0.021251 
napoleon/n 0.034256 0.010639 0.020135 -0.001762 0.031717 -0.028511 -0.042234 0.041610 -0.029090 -0.035950 
489/m -0.032745 0.031739 -0.009421 -0.006438 -0.035633 -0.024586 -0.013646 0.040046 -0.028050 0.024918 
431/m 0.026202 0.009570 -0.031129 -0.024458 0.034038 -0.046190 0.026737 0.036280 0.013708 0.009166 
waterloo/n -0.039302 -0.003084 0.032822 0.043445 0.024249 -0.001242 -0.030112 -0.025087 -0.044250 0.025945 
june/n 0.054289 0.003355 -0.036082 -0.044272 0.017231 0.008902 -0.039385 -0.034472 -0.044752 -0.005835 
i8/f -0.042409 0.051457 0.016807 -0.021342 -0.011139 -0.035934 -0.015245 -0.049267 -0.012501 0.014377 
1815/m 0.003870 -0.042638 -0.017887 0.024253 0.001283 -0.018303 0.029697 0.032938 -0.044169 0.001431 
thing/n -0.025888 -0.036558 -0.015801 -0.003877 -0.014670 0.028817 -0.020389 0.048183 0.040776 0.013214 
elsewhere/r -0.024761 0.015428 0.003174 0.035881 0.008296 0.013997 -0.046304 0.042417 0.004486 0.043674 
begin/v 0.030594 0.009730 -0.004749 0.029815 0.027228 -0.029371 -0.013875 -0.033167 -0.046835 0.032508 
coolidge/n 0.026410 -0.025705 0.013257 -0.000253 0.032123 0.036354 -0.044417 0.013170 0.018383 0.014989 
note/n 0.021881 -0.024217 0.020818 0.011157 -0.011622 0.036915 -0.006463 0.009827 -0.006657 -0.016013 
francis/n 0.047517 0.013442 -0.004156 0.009417 -0.017672 0.045837 -0.013701 0.030821 0.043351 0.017457 
prescott/n 0.015108 0.043063 0.003865 0.004137 0.023733 0.047272 0.040479 0.003623 -0.032006 -0.008249 
republican/n 0.029103 0.025839 -0.050442 -0.033401 0.001594 0.029359 0.046141 0.033547 0.004125 0.006554 
say/v -0.035073 0.000744 -0.024315 0.041100 -0.051128 0.008454 -0.031268 -0.040093 0.025657 0.046107 
report/n -0.034986 -0.005302 -0.031282 0.047214 0.043592 0.004336 0.036396 0.009072 -0.028373 -0.011851 
person/n 0.003669 0.035665 0.018631 -0.031511 0.033982 0.007095 -0.039481 0.043807 -0.018689 0.030838 
my/a -0.040679 0.046582 -0.006017 -0.016293 0.045705 0.015710 -0.014865 0.018258 -0.044066 0.035425 
name/n -0.039103 0.047321 -0.027171 0.002786 0.019687 -0.035608 0.022473 -0.010468 -0.027397 0.043082 
candidate/n -0.022050 0.044558 0.013759 -0.037770 0.041289 0.043233 -0.004127 0.003066 0.018970 -0.004496 
primary/n 0.002907 0.031272 -0.029397 -0.030898 -0.051658 -0.005110 -0.012431 -0.019719 0.020365 -0.025799 
april/n 0.036061 -0.013808 -0.015690 0.028706 -0.044526 -0.001458 0.007926 -0.047320 0.000550 -0.043038 
24/m 0.009685 0.005067 0.001067 0.035831 -0.000891 0.019148 -0.017015 -0.039504 0.034090 0.024080 
such/d 0.027294 -0.026607 -0.007626 0.010471 -0.017215 -0.021880 0.017860 0.000788 0.043434 -0.028069 
action/n -0.041731 -0.000329 -0.016718 -0.006560 0.003751 -0.044973 -0.044030 0.009022 0.043691 -0.019935 
compliment/n -0.032569 0.044906 -0.046150 0.005696 0.040327 0.012903 -0.012836 0.022885 -0.004645 -0.026057 
intend/v 0.054696 -0.000275 -0.041254 0.003276 -0.045573 0.036497 0.030732 -0.017900 0.020425 -0.027902 
request/v -0.025566 0.042496 0.030551 0.002776 0.004777 0.006443 -0.042767 0.031891 -0.041750 0.047330 
inertia/n 0.044332 0.049939 0.036922 0.047585 0.041271 0.039421 -0.017141 0.042468 -0.004312 0.001062 
self-interest/n -0.034635 -0.029218 0.048407 -0.044350 -0.024580 -0.009741 -0.033354 -0.037254 0.005091 0.000551 
red/j 0.051547 -0.003062 0.001832 -0.047349 -0.009967 0.027424 -0.035099 0.022754 -0.015984 -0.038046 
tape/n -0.039148 0.031887 -0.023227 -0.008072 -0.044338 -0.034100 0.019653 0.032439 0.018085 -0.024966 
blockade/v 0.039276 0.026489 -0.033743 -0.019552 -0.039638 -0.006857 0.045910 0.049119 -0.031334 -0.040237 
every/a -0.040478 0.041869 -0.014261 0.046527 -0.034414 -0.024761 -0.014361 0.046717 -0.008171 0.038007 
effort/n -0.044040 -0.020297 -0.007168 0.000361 0.024617 0.021640 0.030381 0.046668 0.027345 0.018722 
representative/n 0.046713 0.028763 0.034585 0.010477 0.000497 0.007242 -0.022571 0.048467 0.009015 0.024000 
require/v 0.012394 0.049134 0.018059 0.021636 0.016681 0.006525 -0.033835 0.028924 -0.002110 -0.011045 
constitution/n -0.028366 -0.014264 0.027719 0.047966 -0.035722 0.000417 -0.041166 0.043157 0.023993 -0.016077 
conformity/n -0.030003 -0.006752 -0.012192 -0.003436 -0.040578 -0.029571 -0.017412 0.040223 -0.036834 0.017825 
present-day/j -0.009272 0.007275 -0.036506 0.002181 -0.005339 0.027073 0.000949 0.045198 0.002766 -0.027933 
population/n 0.049918 0.010963 -0.008811 -0.002015 0.046959 -0.013081 -0.036115 0.007274 -0.007839 0.049456 
still/r 0.033798 0.013726 -0.039887 -0.039599 0.000707 -0.043750 0.026390 -0.001038 0.011517 -0.048445 
hold/v -0.002794 -0.024097 0.007449 -0.040673 0.023759 0.024449 0.035267 0.029064 -0.009168 0.039903 
1910/m 0.007701 -0.000875 0.046492 -0.046115 0.022656 -0.017245 -0.044781 -0.041199 0.013631 -0.009072 
meet/v 0.013217 -0.009869 -0.039699 -0.023056 -0.048375 0.035995 0.022548 -0.017636 -0.034834 0.007908 
month/n -0.003167 0.016621 0.036180 -0.045226 0.029635 -0.021041 -0.044592 0.034403 -0.023044 0.035586 
announce/v 0.020699 0.041715 -0.035575 -0.049677 0.015763 0.036616 0.044209 0.017991 0.034567 0.028753 
bloc/n -0.032236 -0.024368 0.029200 -0.003888 0.036723 -0.006439 0.030537 -0.023664 -0.002483 -0.011358 
100/m 0.004322 0.011503 -0.018958 -0.011314 0.025345 0.044118 -0.008996 0.002465 -0.016877 0.021075 
member/n 0.030486 0.039652 -0.012209 0.004004 -0.013245 0.050441 0.014443 -0.043875 -0.041261 0.022589 
necessary/j -0.016462 -0.037553 -0.004771 0.011588 0.031577 -0.016140 -0.022665 0.026703 -0.027882 0.034711 
filibuster/v 0.057837 -0.007183 0.001250 0.008916 0.023202 -0.011158 0.029743 0.033316 -0.047480 0.045283 
through/i 0.009133 -0.029371 0.024071 -0.015207 -0.005382 -0.002180 -0.026671 -0.042709 0.013538 0.029887 
reapportionment/n 0.040714 0.016439 0.046372 -0.002001 -0.018170 -0.046887 0.011209 0.036475 -0.042049 0.009027 
presumably/r 0.027015 0.010761 0.045707 -0.028862 -0.041175 0.015441 -0.002828 -0.017988 -0.049205 -0.032714 
long-shelved/j 0.014035 0.018331 -0.041073 0.029008 0.049257 0.002580 -0.020439 0.015423 0.008867 -0.040612 
measure/n -0.034583 0.016176 -0.051050 -0.048010 -0.029331 0.017379 0.044926 0.010644 -0.000823 0.032993 
e./n 0.026882 -0.042497 -0.045298 0.025928 -0.034759 0.000469 -0.022212 0.013550 0.024125 -0.010380 
hart/n 0.035497 0.007809 0.039145 -0.017812 0.005558 -0.041685 -0.014398 -0.002292 0.019532 -0.042697 
connecticut/n 0.048720 0.010564 0.038263 -0.046987 -0.035194 0.005345 -0.020007 0.000809 -0.047018 -0.017060 
1930/m 0.040684 -0.023832 -0.046513 0.031405 -0.008431 0.040681 -0.004921 0.024790 -0.019419 0.040001 
17/m 0.035753 -0.045769 -0.008146 -0.015689 0.045985 0.035925 0.000968 -0.030166 -0.046661 -0.031079 
though/c 0.048902 -0.015020 -0.031931 -0.002224 -0.025808 0.018634 -0.049110 -0.019585 0.026168 0.008203 
might/v 0.025405 -0.048409 -0.028033 -0.035756 0.004032 -0.016843 -0.010672 0.021931 0.003027 0.049566 
actually/r 0.041894 0.043323 0.027568 -0.017326 -0.037348 -0.039639 0.036476 -0.034137 -0.002764 -0.043063 
report/v 0.064655 0.019724 0.008016 0.044106 -0.054099 -0.007633 0.030321 -0.022136 -0.001238 -0.023169 
before/i 0.019038 0.028778 -0.042833 0.024804 -0.044399 0.039873 0.017427 0.020225 -0.037046 0.023891 
holiday/n 0.004278 0.040845 -0.005140 -0.045774 0.029290 0.017025 -0.048311 0.045244 0.045565 -0.003839 
go/v -0.026454 0.052059 -0.007669 0.045878 -0.036716 0.039233 0.045471 -0.032501 -0.021871 0.009887 
forth/r 0.035129 -0.031580 -0.004099 -0.027547 -0.033455 -0.040296 0.049153 0.010967 -0.021091 -0.008148 
net/n 0.046583 0.000366 0.009147 0.005955 -0.025912 -0.006064 0.001796 0.041054 -0.002132 0.017706 
line/n -0.040217 0.000980 0.033419 -0.001063 -0.035143 -0.025632 -0.042159 0.022557 0.029280 0.009364 
also/r 0.016596 0.031121 0.006354 -0.016572 0.017677 -0.034308 0.025735 -0.041252 0.041270 -0.007236 
return/v -0.018880 0.019499 -0.029791 0.019098 -0.047475 -0.034166 -0.007668 0.015735 0.044827 0.005680 
empty-handed/j 0.014269 0.047626 0.030160 0.003675 0.038868 0.006201 -0.037663 0.030773 -0.005413 -0.049608 
fill/v -0.022370 -0.029253 0.017726 0.010465 0.019881 -0.049390 -0.000383 -0.009669 -0.042978 -0.049307 
bare/j 0.022726 -0.018590 -0.043268 0.024898 0.033658 -0.006223 -0.003862 -0.000586 -0.024550 -0.007736 
need/v -0.012452 0.043465 0.046015 0.002825 0.003648 -0.007500 -0.042602 -0.001982 -0.022499 0.028312 
tell/v -0.012788 -0.009360 -0.002965 -0.039878 0.009508 -0.007143 -0.019720 0.015392 0.009249 -0.010739 
spell/v -0.020515 0.044223 -0.012945 -0.037931 0.008556 -0.010216 0.036228 -0.047329 0.007562 -0.036619 
destitution/n -0.041444 0.025611 -0.014375 -0.038218 0.044634 -0.007623 0.019766 0.002630 -0.006793 0.001440 
island/n 0.016324 -0.000220 0.042464 0.021884 -0.006772 0.026392 0.007311 -0.009004 0.033978 -0.024800 
depend/v -0.022334 -0.016778 0.042140 0.022872 -0.015976 0.025965 0.019223 0.032545 0.014404 -0.041938 
fish/n 0.019878 0.048014 -0.040794 -0.004166 -0.012320 0.040848 0.043516 0.010160 -0.044702 -0.019532 
since/c 0.002440 -0.036627 0.040148 -0.029382 0.026303 0.028482 -0.031804 -0.023291 0.044618 0.034087 
cod/n 0.051676 0.039650 0.037247 0.044879 -0.005617 -0.008556 -0.036763 -0.035739 0.018157 -0.023453 
hake/n -0.020850 0.013394 -0.030486 -0.023887 -0.010889 -0.007661 -0.026432 -0.025559 0.016927 -0.009820 
pollock/n 0.006580 0.023720 0.041874 -0.023708 -0.050116 -0.006164 -0.034163 0.034454 0.000855 0.016675 
leave/v 0.029608 0.047888 0.040999 0.020772 0.008707 0.042897 -0.007450 0.028110 -0.009120 0.015759 
us/p -0.037068 -0.030443 -0.041596 0.008742 0.045749 0.000628 0.009275 0.021913 -0.013102 -0.002365 
we/p -0.000936 -0.020553 0.031799 -0.019087 -0.032599 0.047977 -0.004180 -0.016250 0.006631 0.049675 
must/v 0.010837 -0.032260 0.046397 0.004296 -0.045865 0.031167 0.037840 0.001293 0.026870 0.005918 
cast/v 0.054807 -0.020963 -0.000972 0.042232 0.038982 -0.012095 -0.037186 0.042123 -0.012548 0.015426 
about/r -0.001969 0.014449 -0.050035 0.028499 -0.008342 0.016526 -0.003233 0.014061 -0.017081 0.007695 
mean/n -0.004588 -0.024857 -0.034221 0.016696 0.005576 -0.034843 -0.023575 -0.023313 -0.024782 0.005725 
arrange/v 0.038977 -0.033229 -0.021288 -0.023152 -0.045385 -0.003736 0.048209 -0.043687 0.037859 0.022326 
loan/n -0.003757 -0.023958 0.013552 0.027585 -0.006804 -0.044864 -0.018591 0.038875 0.039307 0.034506 
attention/n -0.045390 0.048007 -0.024851 -0.006565 0.013722 -0.045792 0.044274 0.043462 -0.007568 -0.020470 
drift/v -0.007930 -0.041594 0.024366 -0.018008 0.034678 -0.036479 0.051816 0.051290 0.033505 -0.032134 
hand/n 0.013280 -0.031720 -0.047173 0.027459 0.010491 0.044700 -0.028009 -0.043224 -0.025287 -0.004428 
carryin/n 0.036489 -0.035153 0.021767 0.017399 0.031053 -0.036568 0.045115 0.002963 0.022755 0.019342 
good/j -0.025315 -0.002596 -0.015179 0.040311 -0.035986 0.004335 0.002908 0.039296 -0.010751 0.037448 
deal/n 0.033512 0.026321 0.033932 -0.027132 0.020964 -0.029305 -0.023336 0.031631 -0.052770 -0.043835 
hardware/n -0.000628 0.042396 -0.021508 -0.048639 -0.000009 -0.021484 0.019802 0.010937 0.016980 -0.036451 
gus/n -0.000215 -0.038207 0.005159 0.010465 -0.030974 0.019209 0.042662 0.003674 -0.011571 -0.005120 
smile/v -0.014992 0.016310 0.018101 0.030090 0.015395 0.024199 -0.006002 0.008675 -0.000897 -0.045047 
most/d 0.022605 -0.041209 0.046147 0.013087 -0.027687 -0.021691 -0.032181 -0.049199 0.027017 -0.035258 
boy/n -0.027149 -0.007390 0.010926 -0.014725 -0.046727 -0.036241 -0.010526 -0.046701 0.014206 0.037234 
quittin/n 0.021528 0.008911 0.012139 -0.013038 -0.030078 -0.030904 0.000124 -0.042679 0.026509 0.032453 
that/d -0.043827 -0.004837 -0.006887 0.023433 0.034476 0.020245 -0.003947 0.016228 -0.010770 0.005733 
foolishness/n -0.006773 -0.018478 -0.049150 0.000038 0.014764 0.000861 -0.023144 -0.046083 -0.024650 -0.049384 
'/" 0.020893 -0.024711 0.049351 -0.000216 -0.031158 0.008360 -0.033763 0.008172 -0.022559 -0.013484 
em/f 0.021084 0.043735 -0.014801 -0.004302 -0.022338 -0.003629 -0.046194 -0.043331 -0.025313 0.031039 
can/v 0.015084 0.007694 0.042401 -0.025153 -0.047993 -0.024204 0.042473 0.036419 0.045062 -0.039791 
get/v -0.004012 -0.020473 -0.040483 0.043399 0.004682 -0.000818 -0.035438 -0.030898 -0.022578 0.015099 
big/j -0.030452 -0.045611 -0.023905 0.017682 -0.043740 -0.026138 -0.028095 -0.016739 -0.029279 0.015161 
gun-toters/n 0.017697 -0.002491 0.028392 -0.030598 -0.003177 0.017214 -0.044283 0.052044 0.012483 -0.012570 
kind/n 0.016482 0.033522 -0.021963 -0.027681 0.047905 0.040290 -0.016908 -0.007561 -0.048575 -0.041766 
kid/n 0.024839 0.026727 -0.031591 0.043889 -0.043336 0.017414 -0.012546 -0.032604 0.021901 -0.017675 
-/- -0.015197 -0.013274 0.022352 0.043535 -0.039606 0.007434 -0.000635 0.026869 -0.039292 -0.046844 
one/p 0.032827 0.057469 -0.012094 0.026187 0.040570 -0.010310 0.047720 -0.034985 -0.016234 0.004596 
.../. -0.028766 -0.045749 -0.049633 -0.024391 -0.024752 0.014593 0.033750 0.000362 -0.020518 -0.017914 
class/n 0.043986 0.003954 0.019521 -0.001412 -0.035074 -0.011691 -0.011736 -0.022355 0.038438 0.008365 
1/m 0.021507 -0.028055 0.038265 0.026585 0.038731 0.025422 -0.047063 -0.045734 0.034332 -0.028143 
road/n 0.018812 0.017403 -0.050211 -0.047174 0.016331 -0.019599 -0.015315 -0.034770 0.010662 0.039723 
now/r -0.022417 0.021459 0.038205 -0.032564 0.024349 0.002043 0.014898 0.000402 -0.029712 -0.036130 
ii/m 0.007191 -0.013627 -0.033043 -0.045494 0.044383 -0.028553 -0.047601 -0.039943 0.023316 0.044848 
opera/n -0.036537 0.041959 0.012993 0.033565 -0.038754 -0.013489 0.010898 -0.046993 0.004243 0.023938 
freight/n -0.022817 0.015495 -0.035539 0.012224 -0.009953 0.005232 0.010358 -0.007421 0.015433 -0.007381 
ear/n 0.040268 -0.014322 0.042001 -0.013246 0.032871 -0.018261 -0.049943 -0.040049 0.013926 -0.034472 
fur/n 0.022538 -0.042395 0.016542 0.012226 0.022981 -0.019675 0.032269 -0.040135 0.029701 -0.029924 
elver/n -0.038524 0.028220 0.036806 -0.020365 -0.028125 0.017978 0.004294 0.045034 -0.010087 -0.036783 
13/m -0.036928 0.031952 -0.022285 -0.022658 0.048120 0.035734 0.002134 0.048992 -0.045197 -0.046959 
inhabitant/n -0.011861 0.020873 0.003831 0.039500 0.002142 -0.003077 -0.035591 0.037273 0.037703 -0.024815 
last/m 0.009460 0.019738 -0.034526 -0.018788 0.022615 0.045775 -0.025641 0.006622 -0.042455 -0.023355 
.121/m 0.010331 0.040887 0.032645 0.038710 -0.031114 0.004212 -0.005104 0.002534 -0.004794 -0.002169 
ref/n 0.023463 -0.014043 -0.029690 0.021521 -0.031499 -0.027879 0.004496 -0.003405 -0.011362 -0.019078 
lars/n -0.017836 0.027259 -0.038948 0.044661 0.045577 -0.025785 -0.008318 0.007343 0.035241 -0.008000 
all/d 0.031089 -0.018260 -0.005619 -0.025642 -0.027712 0.017473 0.033353 0.005373 -0.040019 -0.014652 
type/n -0.015536 0.034031 0.034478 -0.040263 -0.007085 -0.011849 -0.049669 0.001638 -0.026138 -0.034331 
etch/v -0.015714 -0.030286 0.003984 0.019348 0.031024 0.044174 0.038187 -0.027081 -0.023845 0.047192 
average/j -0.028757 0.010291 -0.004063 0.025316 0.039414 -0.032883 -0.040924 0.009319 -0.012107 -0.013110 
equivalent/j 0.052696 -0.040734 0.035379 0.009895 0.012528 0.045556 -0.031920 -0.040693 0.002932 0.001630 
load/v -0.047815 -0.038443 0.040812 -0.034690 -0.040193 -0.010706 0.042711 -0.020254 0.001534 0.027746 
27,1/m 0.035053 -0.032735 -0.011754 -0.049529 0.041136 -0.006720 -0.048385 -0.004509 -0.016254 -0.003160 
per/i -0.014765 -0.024201 0.044949 0.007332 -0.026332 -0.007480 -0.023547 -0.023868 0.040740 -0.030230 
trip/n -0.025584 -0.033107 -0.033740 0.032994 -0.034486 0.013905 -0.036984 0.013286 0.021875 -0.007215 
caller/n -0.004974 0.009829 -0.031654 -0.027489 -0.009480 -0.040933 -0.041264 -0.005273 -0.049480 0.033381 
calle/n 0.046609 -0.043539 -0.025498 0.031404 -0.026804 -0.017899 0.009657 0.017599 0.045818 -0.022469 
english/j 0.044719 0.041046 -0.014499 0.028248 -0.026012 -0.019586 0.001278 0.029548 -0.004368 0.025120 
translation/n 0.033840 0.049202 0.040345 -0.035127 0.000065 0.016875 0.007317 -0.027426 -0.039928 0.036281 
read/v 0.022195 -0.043682 0.011890 0.012487 -0.032036 0.021515 0.005051 0.031758 -0.013761 0.032907 
declaration/n -0.034212 0.045015 -0.014009 -0.046153 -0.000959 0.045290 -0.015417 -0.020365 0.025454 -0.043475 
mr.-/n 0.021900 -0.000445 0.010780 0.014551 0.016412 -0.045273 0.045616 -0.000933 -0.049038 -0.005145 
kellogg/n -0.009867 -0.022937 0.001076 -0.009271 -0.042017 -0.003571 0.006136 0.034866 -0.027282 -0.044917 
answer/v 0.029328 0.009669 -0.012706 -0.041083 -0.032715 -0.025296 0.017941 -0.006484 -0.010108 0.046490 
question/n 0.050587 -0.029324 -0.001394 0.031734 -0.009800 0.006513 0.010410 0.049980 -0.029568 0.008534 
relate/v 0.046402 0.011185 0.018752 -0.004953 -0.046263 0.017211 0.006772 0.045671 0.047975 -0.049320 
visit/n 0.044484 0.003389 -0.050278 0.041735 -0.022532 0.012334 -0.023868 -0.004003 0.042337 0.020493 
ambassador/n -0.021566 0.036595 0.013494 -0.005796 0.030422 -0.038206 -0.028800 -0.006757 0.036405 -0.048313 
sheffield/n 0.030083 0.043084 0.011796 0.033881 0.038258 0.047791 0.007180 -0.045927 0.014544 -0.034304 
affirm/v 0.008542 0.004887 0.018387 0.006341 -0.045689 0.040582 -0.040610 0.004283 0.027859 0.040590 
illegally/r -0.019388 0.008786 0.001985 0.025878 -0.045018 0.027871 0.026951 -0.013993 -0.019611 -0.035608 
compensation/n 0.043545 0.024744 0.039071 -0.038838 0.035903 0.033439 -0.040720 -0.046624 0.018822 -0.031536 
make/v 0.051716 -0.019454 -0.028408 -0.005029 0.003950 -0.009950 -0.029307 -0.007774 0.014792 -0.034217 
instance/n 0.042851 -0.019740 0.016553 -0.043290 0.026244 0.024473 -0.049446 0.042499 -0.014205 -0.007861 
account/i 0.004170 0.016519 0.021555 -0.049912 -0.045026 -0.012238 0.004899 0.006268 -0.036094 0.017307 
unreasonable/j 0.009236 0.005028 -0.003988 -0.029072 0.027890 0.008849 0.026015 0.035731 -0.038548 -0.003612 
demand/n -0.027223 -0.043324 0.027506 -0.047453 0.021980 0.048818 -0.006848 -0.000357 -0.028283 0.031888 
labor/n -0.020200 0.044474 -0.032893 -0.023614 -0.020638 -0.045798 -0.011383 -0.039625 -0.022715 -0.048338 
refer/v 0.043118 -0.009265 -0.018401 -0.018304 -0.029805 0.047283 0.029159 -0.012981 -0.016258 0.010198 
joint/j 0.002977 -0.026750 -0.017462 0.022628 0.005344 0.041455 -0.018684 0.021875 0.000968 0.030305 
claim/n 0.000184 0.005257 0.013428 -0.047911 -0.031413 -0.028498 -0.001885 0.019308 0.015325 -0.012184 
commission/n 0.040216 -0.004258 -0.030803 0.041233 0.035931 0.040536 0.045971 -0.004615 0.040686 -0.036400 
state/v 0.001335 -0.017539 -0.025715 0.039192 0.016525 -0.020006 -0.026127 -0.049764 -0.045900 0.007735 
convince/j -0.013816 0.022506 -0.048839 -0.048243 -0.040593 0.014843 -0.001290 -0.035413 -0.051774 0.035146 
wish/v -0.025892 0.021699 -0.036003 -0.000651 -0.040486 -0.016963 -0.026338 0.021079 0.031247 -0.017099 
convention/n 0.021539 -0.003278 -0.008950 0.023017 0.033385 0.043435 -0.013279 0.012403 0.028714 -0.048988 
indemnify/v 0.028053 -0.019023 -0.029717 -0.024896 0.000888 0.024159 0.008422 0.008802 -0.049487 0.018024 
press/n -0.030566 0.023974 -0.013065 -0.019287 -0.016139 0.015191 0.030125 -0.010907 0.029503 0.010855 
another/d 0.012444 -0.015148 0.027350 0.002796 -0.041277 -0.027339 0.038028 -0.008745 -0.023258 0.026246 
revolutionary/j 0.001617 -0.026869 -0.037584 -0.007192 -0.045627 -0.011622 -0.032839 0.029291 -0.034536 0.005013 
movement/n 0.040627 0.030637 -0.049913 0.044905 0.002731 -0.013866 -0.017268 -0.029757 -0.033626 -0.005848 
may/v 0.023781 -0.023292 -0.035583 0.007660 0.009106 -0.033255 -0.026423 0.019528 -0.045449 0.032968 
impending/j -0.026678 0.023775 0.024264 -0.041944 0.019575 -0.005996 -0.034709 -0.022152 -0.033424 0.048119 
very/r -0.025465 -0.046572 0.002424 -0.012443 0.012891 0.032048 0.039523 -0.045952 -0.007008 -0.001100 
much/d 0.004133 0.036750 0.001360 0.017148 0.026597 -0.008003 0.039025 -0.037270 -0.005101 0.029429 
hope/v -0.032475 0.039955 -0.025795 0.042054 -0.037378 0.048332 0.026746 -0.023244 -0.009766 0.006659 
true/j -0.029475 0.014352 -0.029200 0.032111 0.016031 -0.000868 -0.004344 0.049547 -0.009437 -0.000375 
attitude/n -0.008010 -0.013077 0.002367 0.010117 -0.044633 -0.046423 -0.034572 0.007637 -0.008782 0.000129 
use/v -0.003697 0.026401 0.036588 -0.014265 0.044549 -0.040447 0.046288 0.019707 -0.023653 0.010483 
influence/n 0.045608 0.004705 0.034599 0.017768 0.006426 -0.004175 -0.044675 -0.048350 -0.042388 0.014150 
lend/v 0.044982 0.039060 -0.026164 -0.031365 -0.038417 0.043256 -0.021955 -0.040232 -0.027727 -0.010581 
behalf/n 0.017463 -0.021194 -0.009141 -0.036586 -0.048326 0.036079 0.023992 -0.045793 0.011090 0.024249 
stability/n 0.038944 -0.021203 0.022809 0.029432 -0.006691 -0.020896 -0.035667 -0.045255 0.026863 0.032835 
orderly/j 0.034117 -0.041088 -0.002941 0.017060 0.020951 -0.019003 -0.000302 -0.000384 0.043611 0.006183 
constitutional/j 0.001128 0.002243 -0.040978 -0.027271 0.031275 0.008550 0.025920 0.044635 -0.047132 -0.034796 
procedure/n -0.009820 0.043646 -0.005189 0.029571 -0.000987 0.017738 0.018942 0.010437 0.042800 -0.001086 
support/v -0.001461 0.019251 0.042838 0.037217 -0.003591 0.040805 -0.021472 -0.014462 -0.049950 -0.049804 
only/r 0.018415 0.004770 0.037631 -0.024202 0.005815 0.005987 -0.031081 -0.006555 -0.022443 0.048412 
long/r 0.018118 0.037614 0.013329 -0.042686 0.030038 0.020149 -0.042131 0.020564 -0.029267 0.001854 
protect/v -0.017866 0.049233 -0.023600 -0.029591 0.022966 0.035489 -0.047205 0.021327 -0.006686 0.014742 
live/n -0.027336 0.028619 -0.030578 -0.052023 -0.039808 -0.002240 -0.000172 -0.034436 0.027429 0.028155 
right/n -0.039251 -0.013223 -0.022867 -0.039268 -0.049316 0.040479 0.006176 -0.011884 0.039547 0.038990 
internal/j -0.036070 -0.012155 -0.005707 -0.036432 0.011834 0.024845 0.047058 -0.034191 -0.011671 0.029460 
engagement/n 0.024964 -0.038636 -0.005450 0.037697 0.027428 0.027183 0.023929 -0.033680 0.033006 -0.014207 
obligation/n -0.011652 -0.045740 -0.019894 -0.034435 -0.037103 0.003671 -0.043742 0.001059 0.043338 0.023935 
a-leavin/n -0.012973 -0.040970 0.009109 0.012820 0.020875 -0.042008 -0.029256 0.036558 -0.031834 -0.039490 
alone/r -0.014863 -0.000197 0.037268 0.014592 0.014197 0.018677 -0.039474 0.026821 0.016254 -0.013259 
will/v -0.039324 -0.019689 0.001035 -0.007511 0.015984 -0.024045 0.015453 -0.041396 0.046624 -0.007497 
get/n -0.004162 0.023464 0.046822 0.047607 -0.040397 0.020957 0.049567 -0.025660 -0.044721 0.023017 
somebody/p 0.047119 0.034683 0.015026 -0.032339 0.023041 0.041296 0.049080 -0.032569 0.043007 -0.037405 
set/v 0.014766 0.004146 0.013150 0.034725 0.018941 0.014706 0.031976 0.037732 -0.039930 0.047014 
up/r -0.021028 -0.001499 0.047727 0.044247 0.015089 -0.043629 -0.018035 -0.007171 -0.022887 -0.032056 
jest/v 0.016888 -0.041433 0.029513 0.025880 -0.016439 -0.042329 -0.027379 0.036065 0.049446 0.045820 
lie/v 0.031604 -0.025626 -0.011255 0.044568 -0.008725 -0.043814 0.047886 -0.034850 -0.019385 0.044744 
snug/j 0.001265 -0.000356 0.000590 -0.017331 -0.021247 0.038078 -0.027862 -0.004180 0.020991 0.017142 
think/v -0.023418 0.050328 -0.019372 -0.008606 -0.042937 0.001683 -0.037884 0.049535 -0.009016 0.024706 
about/i 0.041055 -0.044048 0.013544 0.037531 0.009080 -0.046854 0.021825 -0.009716 0.027181 0.004475 
nothin/n 0.015978 -0.039770 0.022986 -0.032927 0.047576 -0.014269 0.018651 -0.006457 -0.035374 -0.033479 
till/c 0.003008 -0.024906 0.036079 -0.044350 -0.030855 0.001466 -0.021168 0.004127 0.040892 -0.024770 
declare/v -0.027293 0.022474 0.002962 -0.024180 0.006805 -0.039871 0.020890 -0.042370 -0.039949 -0.036238 
there/e 0.006527 0.011876 0.008384 0.035588 0.005218 0.030656 0.023616 -0.005619 -0.025293 0.030879 
mistake/n -0.006507 -0.039705 -0.040196 -0.025152 -0.017290 -0.005907 0.006814 0.013096 -0.034697 0.015563 
toss/v 0.036025 0.049455 0.045629 -0.010346 0.008614 0.045542 -0.004227 -0.039910 0.022935 0.037865 
who/p -0.008965 0.037783 -0.017899 0.016445 -0.050079 -0.040670 0.037418 -0.001410 -0.045451 0.013696 
present/v -0.017371 -0.028106 0.005803 0.040888 -0.047426 0.026693 -0.045200 -0.036042 -0.044094 -0.027111 
shake/v -0.011536 0.002205 -0.046284 0.014515 -0.009735 0.005365 -0.028009 -0.045029 0.025821 -0.048568 
incredulously/r 0.024411 0.026942 0.028492 -0.001839 0.001815 0.024693 0.006766 -0.042070 -0.049416 -0.036429 
become/v 0.016924 0.030928 0.002433 0.030733 0.003654 0.013818 -0.016210 -0.003241 -0.035141 -0.025771 
offer/v 0.052152 -0.046964 0.041464 0.041014 0.047274 -0.040084 -0.010438 -0.001548 -0.043825 -0.049742 
show/v -0.009651 0.011629 -0.008661 0.006105 -0.018096 -0.005078 0.015207 0.027460 -0.027795 0.014687 
book/n 0.044969 0.026977 0.027082 -0.046880 -0.022215 -0.000844 -0.015789 -0.032070 0.009896 0.038656 
manager/n -0.034036 0.027113 -0.035270 0.040691 -0.039444 0.005337 0.041209 0.011929 0.037287 0.028501 
call/v -0.001617 0.050101 0.023086 0.014858 -0.018649 -0.017270 -0.023879 -0.035035 -0.039350 0.003261 
attempt/v -0.046633 -0.037398 -0.026011 -0.032426 0.040591 -0.027390 -0.016168 -0.018065 -0.049937 0.017665 
prove/v 0.032700 0.033017 0.009217 0.031933 0.040703 -0.017933 0.014743 0.026586 0.023484 -0.036745 
figure/n 0.034771 0.049527 -0.049779 0.033892 -0.002044 0.036927 -0.022556 0.016182 -0.042958 -0.021299 
date/n -0.017131 -0.037197 0.031529 0.034329 0.016288 -0.020209 -0.000238 -0.032072 -0.023820 0.030138 
extract/n -0.033601 -0.016775 -0.001438 -0.005799 0.004645 0.049511 0.026876 0.002955 -0.010757 0.001180 
entry/n 0.041762 -0.022339 0.001060 -0.022781 -0.034745 -0.038041 0.043257 0.024311 -0.044030 0.021660 
confuse/v 0.024436 0.033573 0.030102 0.031544 0.026738 0.049345 0.000022 -0.009072 -0.016156 0.004458 
noise/n -0.041631 -0.036649 -0.036649 0.013561 -0.020260 0.041307 0.025223 0.018940 -0.014209 0.013676 
grow/v 0.001325 0.031606 -0.031654 -0.037886 0.034676 0.025724 0.030564 0.010414 -0.032233 0.016930 
turn/n 0.057666 -0.017012 0.025430 0.025994 -0.007909 -0.043325 0.030326 0.035223 0.009984 0.023174 
vociferating/v 0.022429 -0.032537 0.041515 -0.010411 0.014575 0.047728 0.047345 0.005496 -0.013122 0.010277 
cheat/v -0.028121 0.043799 0.005072 -0.040275 -0.018083 0.030721 0.024942 0.024391 0.006417 0.014526 
other/n 0.001631 0.029187 -0.021434 -0.039181 0.022708 0.043566 -0.047792 -0.020067 -0.015427 -0.010575 
retort/v 0.044058 -0.031735 -0.023728 0.031785 0.023198 -0.002086 -0.037600 0.003026 0.029649 -0.015885 
rage/n -0.036649 0.051100 -0.031267 0.047341 0.040487 0.034454 -0.004497 -0.035360 -0.016637 -0.031146 
end/n -0.038399 0.036184 -0.046795 -0.020505 0.022143 -0.022013 0.021906 0.022330 0.001767 0.005657 
gain/v -0.006373 -0.010630 -0.039757 0.039258 0.044474 0.049128 -0.011305 -0.043709 0.023851 0.009808 
point/n -0.017142 0.021364 0.021930 -0.025687 -0.001883 0.044691 -0.033924 -0.028759 -0.004608 -0.017349 
right/j 0.024135 0.001301 0.010074 -0.036830 -0.024776 -0.040852 -0.005688 -0.032372 0.023827 -0.012513 
at/r 0.033190 -0.004837 -0.029142 -0.034301 -0.020674 -0.007599 0.043799 0.019357 0.042111 -0.023926 
length/r -0.034344 0.017440 0.017291 0.016567 -0.040794 0.039692 0.010129 -0.019369 -0.028407 -0.029491 
bring/v -0.038738 -0.011269 0.045375 0.028835 -0.024370 -0.032864 -0.013747 0.015125 0.028892 -0.049398 
around/r -0.043170 0.011424 0.028534 -0.040210 -0.015602 -0.033505 -0.049866 0.031232 -0.046925 -0.002111 
wrong/j -0.000529 -0.034289 0.021453 -0.020767 0.000707 -0.007243 0.031761 -0.014170 -0.051611 -0.026586 
ready/j 0.029618 -0.041289 0.022388 -0.018592 0.030665 0.041163 0.039585 0.022130 0.034150 -0.035247 
money/n 0.022065 -0.008999 -0.018489 0.041314 0.038915 0.029904 -0.016257 -0.021969 -0.031037 0.021853 
while/c -0.005206 -0.035667 0.014830 -0.026818 0.001204 0.002213 -0.030616 0.032131 -0.040691 -0.025550 
hesitate/v -0.034611 0.019304 -0.034783 0.037113 -0.036732 -0.016187 0.007641 -0.001151 -0.042261 0.028775 
unwilling/j 0.011193 -0.036022 -0.040366 0.046309 -0.030807 -0.021761 0.018241 -0.005337 0.032935 0.011024 
part/n 0.013399 0.041743 0.027626 -0.036295 0.011513 -0.041518 -0.042053 -0.004856 0.045527 -0.046530 
any/d 0.009910 0.013018 0.034822 0.007625 -0.001988 0.019226 0.026721 0.013182 -0.026315 -0.016925 
bond/n 0.013423 -0.025948 -0.018245 -0.034164 -0.038680 0.001701 0.050160 0.026361 0.035170 -0.021363 
additional/j -0.012100 0.018195 -0.012440 0.046995 0.005180 -0.010785 0.022636 -0.029770 0.024532 -0.032041 
mortgage/n -0.013921 0.006715 0.035497 -0.006227 -0.050912 0.004518 -0.045242 -0.021791 -0.013613 0.011691 
homestead/n 0.042779 -0.016068 -0.036667 -0.050030 0.028620 0.031285 -0.001095 0.043879 -0.036680 -0.040314 
hotel/n 0.002280 0.047237 0.034382 -0.006507 -0.038461 -0.010611 -0.003500 0.023393 -0.033214 0.019164 
two/m -0.032214 0.027794 -0.010938 0.023917 -0.032486 0.014639 -0.048904 0.049245 -0.002219 -0.017128 
warning/n 0.017321 -0.034033 0.042179 0.032658 0.006759 0.030915 0.047330 -0.014477 -0.001462 0.014426 
suddenly/r 0.005005 -0.044211 0.047917 -0.040894 -0.006082 -0.020592 -0.029285 -0.008637 0.006512 -0.016652 
seize/v 0.019361 0.010638 0.008304 0.035120 -0.048708 -0.010660 0.032338 0.009973 0.014350 -0.049277 
furniture/n 0.014575 -0.005632 0.020355 0.011397 -0.049287 0.035871 0.028917 -0.031005 -0.036754 -0.012509 
loge/n -0.024418 -0.027475 0.040053 -0.000017 -0.040500 -0.023089 -0.033264 0.045693 0.045354 0.043407 
choose/v 0.038039 0.000073 -0.038394 0.047825 -0.013742 -0.028893 0.004495 -0.016646 -0.024681 0.014596 
height/n -0.037411 -0.030437 -0.050877 0.023114 0.025353 0.027987 0.031033 -0.001803 -0.000246 0.027052 
tempest/n -0.035848 -0.016907 -0.035485 -0.016158 0.035861 0.024067 -0.025001 -0.001955 0.030059 -0.020930 
without/i 0.043430 -0.005900 -0.019187 0.047946 -0.019863 -0.045968 0.048672 -0.003472 0.013676 0.034545 
word/n -0.027787 -0.045927 -0.048085 -0.046538 -0.002407 -0.044457 0.002605 -0.030583 -0.047101 -0.017471 
cleggett/n 0.000936 0.016490 -0.023911 -0.024101 0.032886 0.021931 0.013831 0.003541 0.007201 0.039064 
out/r -0.025600 -0.036070 -0.047094 -0.027198 0.029287 0.048108 -0.036027 0.017375 -0.039650 -0.032305 
light/n 0.035840 -0.001470 0.014062 -0.030981 0.026827 -0.036447 0.048368 -0.014918 0.032263 0.019987 
cabin/n -0.016909 -0.038318 -0.003048 -0.008387 -0.037245 -0.035547 0.007609 -0.026922 -0.000162 -0.035054 
grasp/v -0.009263 0.033235 0.021471 0.039019 0.038158 0.037545 0.025926 0.047945 -0.019893 -0.013243 
weapon/n 0.039620 0.030059 0.008582 -0.047682 -0.043813 -0.020728 -0.018499 0.048856 0.017235 0.020652 
deck/n -0.011768 0.021091 -0.024177 0.001544 -0.002633 -0.019089 0.007257 -0.046107 0.003657 0.013230 
